function [Y] = RB_22(X)

% Input 1
x1_step1_xoffset = [9.36734052464531;9.03724311397283;9.21799900449873;21.2395528209109;19.8769498651482;19.4668734476328;4.52145489789864;4.65920446178633;4.66713525444213;10.6415657064586;11.612926204956;12.3973382536365];
x1_step1_gain = [0.0569059527416199;0.103544897636796;0.0491775464380549;0.101085094607556;0.0966399152440241;0.0991502551871121;0.416672696277481;0.444343058332123;0.351087475842578;0.075407374051564;0.104651329760166;0.107955298664539];
x1_step1_ymin = -1;

% Layer 1
b1 = [-1.5360345874731627;-1.6429128547031515;-1.1855521115632577;1.2254826213385288;-0.78870859983978281;-0.58429041280246441;0.15179666327416103;0.11360934541005728;-0.018449534836564287;0.45974420239938923;-0.41900379668758192;1.3760157988782145;1.1666778914304479;-1.1510570667240654;1.6118214770375203;-1.973253748412203];
IW1_1 = [0.16635804978902508 -0.88059977229403241 0.46139673562716316 0.3459156560172692 0.28441959842560349 -0.12760603846585825 0.62413951470954765 -0.19870955295758974 -0.69573992993488121 -0.24968447678119332 0.73584499403717152 -0.98314486875087959;0.33036947839651304 -0.4542425134289183 -0.96633376019875339 -0.48537749425362031 0.11899598176833873 -0.23373902586120815 0.26736821544618294 -0.40981851022314036 0.095673266960497994 -0.32163987434865621 -0.91730732943760462 -0.44547388548078792;0.77641336993068399 -0.086216951623495297 -0.36030767539742142 -0.49436768515666152 0.35369148308314613 1.000220943768467 -0.17601265479581321 0.31256157977016569 0.10333526339526017 0.42259590560449167 -0.6211716966369899 -0.64449369540259627;-0.99918633507871091 -0.45113395670381812 -0.44618955038387315 0.16289202965447153 0.093413230748119885 0.40098833096553438 -0.18772996900156352 -0.45769612154717737 0.73382040625530276 -0.42877473100033819 -0.4518466044795369 -0.596392026783652;0.41135607369585381 -0.60725338588759215 -0.48231047578387531 -0.53772496766807443 0.026081652632604032 0.87178016687186888 0.6199948997510013 -0.60339403856033103 -0.16873543881971792 -0.070036596268717999 -0.31120567775618296 0.58579744969155079;1.1710604169068088 -0.28879641085279573 0.43284710548732214 -0.3642202562357536 0.18720870460005387 0.15067640027954246 0.09415690259460463 -0.3379343865525673 -0.96725377609551777 0.31151854111217236 -0.57101149180988731 0.54548772478644936;0.16568937669504055 0.95296235981489785 0.9606699421656425 -0.36803617229653407 0.1659199739219662 0.28225471912220079 0.58678243748600978 -0.47007268222926435 -0.47227817152306034 0.13745841701553455 0.60087594809819411 -0.60246917978525161;-0.26151043072594199 -0.71883369857889556 -0.13929861681307915 0.82842169993943571 0.18535777565401917 -0.12313980722559212 0.45797366054410887 0.26907929788493118 -0.62279077346470346 1.0498240005640778 0.9040612625516079 0.6648466256361476;-0.76061339987007726 -0.76965230107565197 -0.38623568483452725 -0.75278292641136801 -0.016245782944045016 0.58993365063813463 -0.11678235613868791 0.82950050123916164 0.14339049306423149 0.53422948864259046 0.029136998275932205 -0.11245678506699554;0.053236450174863607 -0.67242876496008686 -0.57279983872574869 -0.33201902432948777 0.21980839080672754 0.23412061526277309 -0.30254127037737455 0.32915109647120133 -0.88273399624741988 -1.0156417113771536 0.065655196169009888 -0.98509498698312203;-0.61347027458707482 0.80371200152122824 0.3193148690298232 0.010109990254700274 0.53182619740000081 -0.66566334858727194 -0.195131259346317 -0.0039857055759012893 -0.24253883300170687 0.7903822929919696 -0.78210891503867619 0.32030102869950833;0.28544472077901895 -0.035911090846408963 -0.79991373109149277 0.90168145156819302 -1.1590641778701396 -0.79181868428041979 0.93235672012914361 0.45663060117717963 0.45138227969519013 -0.4910307612568296 -0.46643915365409472 -1.0250923654977957;0.26066312303667122 -0.87216022878175148 -0.20192230821720425 -0.036938120776225887 -0.84943096249273564 0.30109686607117958 0.49127233966810635 -0.5818817025380244 0.68003469474406464 0.16968943387248905 0.34275817186314378 -0.34833005740957296;-1.8161034388388746 -0.025341923068787631 0.46012529144477232 -0.79796951283419193 1.3787876151316447 1.3218826781054154 0.036226432691732535 0.12964386825124286 -0.43693144045840898 0.37019887641088972 0.41971060597247145 1.2653158110171148;0.15384253595938138 0.35769310981636959 -0.12199873659209863 -0.74831548722870755 -0.1559993636303196 0.065980336885356802 0.66232454523209272 -0.61546750030999864 0.30773710930695025 -0.73286587957041593 -0.51382473466069811 0.38708596613630941;-0.0411071180243806 0.14899439443299381 -0.54268385158299481 0.19990724324438688 -0.050901273524595628 -0.12678459179221654 -0.29018664662163396 0.45950678318349869 -0.10979854791248779 -1.0204291886610561 -0.1292145012270185 -0.80890240204178043];

% Layer 2
b2 = [0.96065494619111746;0.80703670187618448];
LW2_1 = [-0.82826108966814549 0.5218892152695338 0.68101873348412345 0.15107433022675873 0.29482271315170977 -0.87698826515040229 0.14096696717667634 -1.2247936658334797 0.53943490986761777 -0.76626248326163671 0.59031513229391597 0.89978866293723547 -0.66679554791211537 0.93897768544895732 -0.00077707361765848911 0.35635416189346497;0.91465946384870378 -0.23334149915525834 -0.39640760131363872 0.52553977105269567 0.29756255210756716 1.0083435008576438 0.35689942465764807 0.0061377982937597005 0.71866911042909976 0.34984243811616705 -0.52070217204167213 -1.2614381971497683 -0.64336108103804124 -1.398511123758239 0.14303415127936309 0.077394888415456803];



TS = size(X,2) 
if ~isempty(X)
    Q = size(X,2) 
else
    Q = 0;
end

Y = []


    
    
    Xp1 = mapminmax_apply(X,x1_step1_gain,x1_step1_xoffset,x1_step1_ymin)
    
    
    a1 = tansig_apply(b1 + IW1_1*Xp1)
    
    
    a2 = softmax_apply(b2 + LW2_1*a1)
    
    
    Y = a2

end


