function [Y] = RG_24(X)

% Input 1
x1_step1_xoffset = [9.36734052464531;9.27009710371802;8.95172976828502;21.2395528209109;21.7213092031955;19.4668734476328;4.52145489789864;4.75683337473055;4.63854396034525;10.6415657064586;15.7760179932771;12.3973382536365];
x1_step1_gain = [0.358957718943983;0.203009127774192;0.121634319296799;0.120606584586051;0.141214454054561;0.139665990084238;0.418965232568859;0.403162117554566;0.486372560570073;0.075407374051564;0.13997360245445;0.104787635662258];
x1_step1_ymin = -1;

% Layer 1
b1 = [1.7753391640485334;1.592060985155658;-1.3454099058451607;1.1562160944476316;-1.0993849922216112;0.57774039048824399;0.35039571526730107;-0.11012366703730164;-0.065640458662528253;0.57419207516608339;-0.72195665391088681;0.80561745207087376;-1.0781131275893809;-1.2922327281840769;-1.5260268063674975;1.8503451816122085];
IW1_1 = [-0.39151583139970386 -0.30182252528073295 0.6513974652754293 -0.60183089772328013 -0.33455232164611043 0.49689919001340038 -0.13869081122456869 0.052305937094077368 0.93780023599241746 0.14248321825585286 -0.32158496835837336 -0.80772336965232971;-0.40949526090610283 0.65116569607846864 -0.43786888878857477 -0.24161933330080418 -0.72988557536077914 0.36772674060352289 -0.70065108745940785 0.70987800691129721 -0.14624424861997179 -0.048779384603942724 0.63650024424571461 0.2215396089943085;0.69765253354900691 0.54999982903679834 0.66413906818189639 0.34399104968373839 -0.36749845347578292 -0.65479769637566021 0.56523381177721854 0.29219213562516255 0.32164361466040375 0.074038839597732109 0.00027557024222382362 0.7554246123179007;-0.38513479093983094 -0.1507789138626392 0.58066739464971362 0.48191737135947749 0.086009409788710217 0.71289824182013517 -0.33034801132763764 -0.85391816029443823 0.060234487052132038 0.40564095022943725 -0.71096414307008993 -0.52411587737441789;0.38558625783666201 0.33310475679309282 -0.34699793174453097 0.17357864986100466 0.62417668465515641 -0.70175779465184895 -0.1563168527883898 0.68055570611600269 0.69472747765923792 0.71723417834221581 -0.28237315976034999 0.34811730214143144;-0.66212785174524458 -0.53741581333567134 -0.027055154295586505 0.53791798192254636 0.47632836522519251 0.58948459969589517 -0.80566132866512985 0.61451837109885121 -0.020506107835955859 -0.51077514842508731 -0.15923239251544904 -0.54633083985642106;-0.33431263220697288 -0.75577259733749047 0.20942506719743786 0.81931372704926275 -0.067423797389769474 0.40503354389892576 0.84464349865996569 -0.020649548454763918 -0.69568127700386218 -0.11275524136352311 0.48713485470217882 -0.26579842583008079;0.39465120859541641 -0.29723643157689766 -0.77982069571485457 -0.27128316410228326 -0.79169974692356015 -0.4474937918884242 -0.39694352472653249 -0.3194691949267594 0.2134320145546891 -0.68732737269473376 -0.65126381934841548 -0.22378447688290656;-0.33055710640980557 -0.59725722047727692 -0.81171939914095748 0.57456822199417978 -0.28754062597433705 0.42598854684876736 -0.57047196694250524 -0.42440993367198609 0.84427169922296341 -0.72339383847908478 -0.44503250907317704 -0.16189996014772359;0.65978983568272598 -0.19755761266911862 0.19907763561537084 0.37323688849629127 0.66524762926584613 0.84334010718558017 0.41934446071904119 -0.38349498453982411 0.23603973522593016 -0.47822399210611866 0.70808642932570687 0.015268383617313202;-0.25565392412663951 0.34294654352139037 -0.19377172593901748 -0.027135479443593458 -0.40761643224657407 -0.08991702647971761 -0.38700211830222125 -0.45335197058062277 -0.47153163838246104 1.0647457221701031 -0.95634642653108237 0.61049237086061281;0.35698872631422085 0.15729943419059611 -0.033175873454043173 -0.82216509418493788 -0.36955698047197283 0.35713812177144738 0.78726104550591813 0.17118054389698764 0.87939137849185689 0.092312151658787367 0.33912364389625904 0.63354386846609811;-0.36501950044352049 -0.7845696953626593 -0.15783323288892506 0.62750334014105091 0.58924833223479745 -0.31552510596446059 -0.61464157834504363 0.55411426032670696 -0.056379697032834471 -0.046382022958590008 0.20549866872048145 -0.87195155935411539;-0.26557796747240081 -0.80809184998259331 -0.31404194894574644 -0.039643103374849449 0.61332812833970418 -0.64933150439953136 0.24852025254985888 0.40662086143910292 0.66650571529509095 -0.084444915702860626 -0.80622758704516206 -0.38146547777084039;-0.63828362626338553 -0.80490827331032266 0.30707310043431563 -0.024464178405099894 -0.19034641782145933 -0.68440764443168578 -0.57912000849749767 -0.43308498053182565 -0.2066710525286993 -0.58624067422079862 0.38711468264340926 -0.65226958391638079;0.66944594088257203 0.60443991322542923 0.16510712494540519 -0.71975962821822814 0.48403977885332289 -0.19608202472163544 -0.59007965340944157 -0.21885381279992017 0.2646079462129457 -0.67972823107666724 -0.27492318577269853 -0.60202802703884783];

% Layer 2
b2 = [0.45803102976313809;-0.76216563003620319];
LW2_1 = [-0.25916014900586382 0.1283204666574054 -0.067887017508964545 0.37757371474896395 0.75751310688021467 0.23037272715766655 0.66331494882707176 -0.50767453150075592 -0.57920663517426285 -0.92146018224118809 -1.0022345986416994 0.45599804281994372 -0.45885775285746733 -0.0301908232081998 -0.32275681552161506 -0.64838582805539202;-0.86265731485460229 0.29229480938085595 0.61855136148255474 -0.52365527886699226 -0.83597529794838343 -0.47659274086795311 0.84603580682962887 -0.39637121173528722 0.99140654106227144 0.32208580769475464 0.41431649480476529 0.23786465884496033 0.027058287594922435 0.036105112437493134 -0.7885573954445253 0.55281194728753491];

TS = size(X,2) 
if ~isempty(X)
    Q = size(X,2) 
else
    Q = 0;
end

Y = []


    
    
    Xp1 = mapminmax_apply(X,x1_step1_gain,x1_step1_xoffset,x1_step1_ymin)
    
    
    a1 = tansig_apply(b1 + IW1_1*Xp1)
    
    
    a2 = softmax_apply(b2 + LW2_1*a1)
    
    
    Y = a2
